<?xml version="1.0" encoding="UTF-8"?>
<BIF VERSION="0.3"  xmlns="http://www.cs.ubc.ca/labs/lci/fopi/ve/XMLBIFv0_3"
	xmlns:xsi="http://www.w3.org/2001/XMLSchema-instance"
	xsi:schemaLocation="http://www.cs.ubc.ca/labs/lci/fopi/ve/XMLBIFv0_3 http://www.cs.ubc.ca/labs/lci/fopi/ve/XMLBIFv0_3/XMLBIFv0_3.xsd">
<NETWORK>
<NAME>New Network</NAME>
<PROPERTY>detailed = </PROPERTY>
<PROPERTY>short = </PROPERTY>

<VARIABLE TYPE="nature">
	<NAME>Burglary</NAME>
	<OUTCOME>True</OUTCOME>
	<OUTCOME>False</OUTCOME>
	<PROPERTY>position = (273.2939453125, 52.482421875)</PROPERTY>
</VARIABLE>

<VARIABLE TYPE="nature">
	<NAME>Earthqk</NAME>
	<OUTCOME>True</OUTCOME>
	<OUTCOME>False</OUTCOME>
	<PROPERTY>position = (717.8662109375, 48.37890625)</PROPERTY>
</VARIABLE>

<VARIABLE TYPE="nature">
	<NAME>Alarm</NAME>
	<OUTCOME>True</OUTCOME>
	<OUTCOME>False</OUTCOME>
	<PROPERTY>position = (519.5185546875, 213.896484375)</PROPERTY>
</VARIABLE>

<VARIABLE TYPE="nature">
	<NAME>John calls</NAME>
	<OUTCOME>True</OUTCOME>
	<OUTCOME>False</OUTCOME>
	<PROPERTY>position = (271.92578125, 384.8857421875)</PROPERTY>
</VARIABLE>

<VARIABLE TYPE="nature">
	<NAME>Mary calls</NAME>
	<OUTCOME>True</OUTCOME>
	<OUTCOME>False</OUTCOME>
	<PROPERTY>position = (726.07373046875, 387.62109375)</PROPERTY>
</VARIABLE>

<DEFINITION>
	<FOR>Burglary</FOR>
	<TABLE>0.001 0.999</TABLE>
</DEFINITION>

<DEFINITION>
	<FOR>Earthqk</FOR>
	<TABLE>0.002 0.998</TABLE>
</DEFINITION>

<DEFINITION>
	<FOR>Alarm</FOR>
	<GIVEN>Burglary</GIVEN>
	<GIVEN>Earthqk</GIVEN>
	<TABLE>0.95 0.05 0.94 0.06 0.29 0.71 0.001 0.999</TABLE>
</DEFINITION>

<DEFINITION>
	<FOR>John calls</FOR>
	<GIVEN>Alarm</GIVEN>
	<TABLE>0.9 0.1 0.05 0.95</TABLE>
</DEFINITION>

<DEFINITION>
	<FOR>Mary calls</FOR>
	<GIVEN>Alarm</GIVEN>
	<TABLE>0.7 0.3 0.01 0.99</TABLE>
</DEFINITION>
</NETWORK>
</BIF>
